digraph Tree {
node [shape=box] ;
0 [label="X[3] <= 0.5\nentropy = 0.8061\nsamples = 8470\nvalue = [6380, 2090]"] ;
1 [label="X[1] <= 0.5\nentropy = 0.3535\nsamples = 4198\nvalue = [3918, 280]"] ;
0 -> 1 [labeldistance=2.5, labelangle=45, headlabel="True"] ;
2 [label="X[2] <= 0.5\nentropy = 0.5299\nsamples = 882\nvalue = [776, 106]"] ;
1 -> 2 ;
3 [label="X[6] <= 0.5\nentropy = 0.4857\nsamples = 598\nvalue = [535, 63]"] ;
2 -> 3 ;
4 [label="X[7] <= 0.5\nentropy = 0.5197\nsamples = 480\nvalue = [424, 56]"] ;
3 -> 4 ;
5 [label="X[4] <= 0.5\nentropy = 0.5164\nsamples = 476\nvalue = [421, 55]"] ;
4 -> 5 ;
6 [label="X[5] <= 0.5\nentropy = 0.5211\nsamples = 461\nvalue = [407, 54]"] ;
5 -> 6 ;
7 [label="X[0] <= 0.5\nentropy = 0.5233\nsamples = 441\nvalue = [389, 52]"] ;
6 -> 7 ;
8 [label="entropy = 0.5543\nsamples = 194\nvalue = [169, 25]"] ;
7 -> 8 ;
9 [label="entropy = 0.4978\nsamples = 247\nvalue = [220, 27]"] ;
7 -> 9 ;
10 [label="X[0] <= 0.5\nentropy = 0.469\nsamples = 20\nvalue = [18, 2]"] ;
6 -> 10 ;
11 [label="entropy = 0.0\nsamples = 13\nvalue = [13, 0]"] ;
10 -> 11 ;
12 [label="entropy = 0.8631\nsamples = 7\nvalue = [5, 2]"] ;
10 -> 12 ;
13 [label="X[0] <= 0.5\nentropy = 0.3534\nsamples = 15\nvalue = [14, 1]"] ;
5 -> 13 ;
14 [label="entropy = 0.0\nsamples = 3\nvalue = [3, 0]"] ;
13 -> 14 ;
15 [label="entropy = 0.4138\nsamples = 12\nvalue = [11, 1]"] ;
13 -> 15 ;
16 [label="X[0] <= 0.5\nentropy = 0.8113\nsamples = 4\nvalue = [3, 1]"] ;
4 -> 16 ;
17 [label="entropy = 1.0\nsamples = 2\nvalue = [1, 1]"] ;
16 -> 17 ;
18 [label="entropy = 0.0\nsamples = 2\nvalue = [2, 0]"] ;
16 -> 18 ;
19 [label="X[0] <= 0.5\nentropy = 0.3247\nsamples = 118\nvalue = [111, 7]"] ;
3 -> 19 ;
20 [label="entropy = 0.172\nsamples = 39\nvalue = [38, 1]"] ;
19 -> 20 ;
21 [label="entropy = 0.3877\nsamples = 79\nvalue = [73, 6]"] ;
19 -> 21 ;
22 [label="X[5] <= 0.5\nentropy = 0.6134\nsamples = 284\nvalue = [241, 43]"] ;
2 -> 22 ;
23 [label="X[8] <= 0.5\nentropy = 0.6242\nsamples = 276\nvalue = [233, 43]"] ;
22 -> 23 ;
24 [label="X[0] <= 0.5\nentropy = 0.7871\nsamples = 17\nvalue = [13, 4]"] ;
23 -> 24 ;
25 [label="entropy = 0.971\nsamples = 10\nvalue = [6, 4]"] ;
24 -> 25 ;
26 [label="entropy = 0.0\nsamples = 7\nvalue = [7, 0]"] ;
24 -> 26 ;
27 [label="X[0] <= 0.5\nentropy = 0.6113\nsamples = 259\nvalue = [220, 39]"] ;
23 -> 27 ;
28 [label="entropy = 0.6184\nsamples = 202\nvalue = [171, 31]"] ;
27 -> 28 ;
29 [label="entropy = 0.5852\nsamples = 57\nvalue = [49, 8]"] ;
27 -> 29 ;
30 [label="entropy = 0.0\nsamples = 8\nvalue = [8, 0]"] ;
22 -> 30 ;
31 [label="X[0] <= 0.5\nentropy = 0.2968\nsamples = 3316\nvalue = [3142, 174]"] ;
1 -> 31 ;
32 [label="X[6] <= 0.5\nentropy = 0.3679\nsamples = 1659\nvalue = [1542, 117]"] ;
31 -> 32 ;
33 [label="X[4] <= 0.5\nentropy = 0.3879\nsamples = 1487\nvalue = [1374, 113]"] ;
32 -> 33 ;
34 [label="X[5] <= 0.5\nentropy = 0.3914\nsamples = 1468\nvalue = [1355, 113]"] ;
33 -> 34 ;
35 [label="X[7] <= 0.5\nentropy = 0.391\nsamples = 1418\nvalue = [1309, 109]"] ;
34 -> 35 ;
36 [label="entropy = 0.3912\nsamples = 1404\nvalue = [1296, 108]"] ;
35 -> 36 ;
37 [label="entropy = 0.3712\nsamples = 14\nvalue = [13, 1]"] ;
35 -> 37 ;
38 [label="entropy = 0.4022\nsamples = 50\nvalue = [46, 4]"] ;
34 -> 38 ;
39 [label="entropy = 0.0\nsamples = 19\nvalue = [19, 0]"] ;
33 -> 39 ;
40 [label="entropy = 0.1594\nsamples = 172\nvalue = [168, 4]"] ;
32 -> 40 ;
41 [label="X[6] <= 0.5\nentropy = 0.216\nsamples = 1657\nvalue = [1600, 57]"] ;
31 -> 41 ;
42 [label="X[7] <= 0.5\nentropy = 0.231\nsamples = 1438\nvalue = [1384, 54]"] ;
41 -> 42 ;
43 [label="X[4] <= 0.5\nentropy = 0.2329\nsamples = 1422\nvalue = [1368, 54]"] ;
42 -> 43 ;
44 [label="X[8] <= 0.5\nentropy = 0.2346\nsamples = 1409\nvalue = [1355, 54]"] ;
43 -> 44 ;
45 [label="entropy = 0.3534\nsamples = 45\nvalue = [42, 3]"] ;
44 -> 45 ;
46 [label="entropy = 0.2302\nsamples = 1364\nvalue = [1313, 51]"] ;
44 -> 46 ;
47 [label="entropy = 0.0\nsamples = 13\nvalue = [13, 0]"] ;
43 -> 47 ;
48 [label="entropy = 0.0\nsamples = 16\nvalue = [16, 0]"] ;
42 -> 48 ;
49 [label="entropy = 0.1044\nsamples = 219\nvalue = [216, 3]"] ;
41 -> 49 ;
50 [label="X[8] <= 0.5\nentropy = 0.9831\nsamples = 4272\nvalue = [2462, 1810]"] ;
0 -> 50 [labeldistance=2.5, labelangle=-45, headlabel="False"] ;
51 [label="X[1] <= 0.5\nentropy = 0.8865\nsamples = 483\nvalue = [336, 147]"] ;
50 -> 51 ;
52 [label="X[6] <= 0.5\nentropy = 0.9903\nsamples = 138\nvalue = [77, 61]"] ;
51 -> 52 ;
53 [label="X[2] <= 0.5\nentropy = 0.9359\nsamples = 71\nvalue = [46, 25]"] ;
52 -> 53 ;
54 [label="X[7] <= 0.5\nentropy = 0.9887\nsamples = 32\nvalue = [18, 14]"] ;
53 -> 54 ;
55 [label="X[4] <= 0.5\nentropy = 0.9932\nsamples = 31\nvalue = [17, 14]"] ;
54 -> 55 ;
56 [label="X[0] <= 0.5\nentropy = 0.9957\nsamples = 26\nvalue = [14, 12]"] ;
55 -> 56 ;
57 [label="entropy = 0.9986\nsamples = 23\nvalue = [12, 11]"] ;
56 -> 57 ;
58 [label="entropy = 0.9183\nsamples = 3\nvalue = [2, 1]"] ;
56 -> 58 ;
59 [label="X[0] <= 0.5\nentropy = 0.971\nsamples = 5\nvalue = [3, 2]"] ;
55 -> 59 ;
60 [label="entropy = 0.9183\nsamples = 3\nvalue = [2, 1]"] ;
59 -> 60 ;
61 [label="entropy = 1.0\nsamples = 2\nvalue = [1, 1]"] ;
59 -> 61 ;
62 [label="entropy = 0.0\nsamples = 1\nvalue = [1, 0]"] ;
54 -> 62 ;
63 [label="X[0] <= 0.5\nentropy = 0.8582\nsamples = 39\nvalue = [28, 11]"] ;
53 -> 63 ;
64 [label="X[7] <= 0.5\nentropy = 0.9183\nsamples = 33\nvalue = [22, 11]"] ;
63 -> 64 ;
65 [label="X[5] <= 0.5\nentropy = 0.8767\nsamples = 27\nvalue = [19, 8]"] ;
64 -> 65 ;
66 [label="entropy = 0.9183\nsamples = 6\nvalue = [4, 2]"] ;
65 -> 66 ;
67 [label="entropy = 0.8631\nsamples = 21\nvalue = [15, 6]"] ;
65 -> 67 ;
68 [label="entropy = 1.0\nsamples = 6\nvalue = [3, 3]"] ;
64 -> 68 ;
69 [label="entropy = 0.0\nsamples = 6\nvalue = [6, 0]"] ;
63 -> 69 ;
70 [label="X[2] <= 0.5\nentropy = 0.996\nsamples = 67\nvalue = [31, 36]"] ;
52 -> 70 ;
71 [label="X[0] <= 0.5\nentropy = 0.9997\nsamples = 53\nvalue = [26, 27]"] ;
70 -> 71 ;
72 [label="entropy = 1.0\nsamples = 42\nvalue = [21, 21]"] ;
71 -> 72 ;
73 [label="entropy = 0.994\nsamples = 11\nvalue = [5, 6]"] ;
71 -> 73 ;
74 [label="X[0] <= 0.5\nentropy = 0.9403\nsamples = 14\nvalue = [5, 9]"] ;
70 -> 74 ;
75 [label="entropy = 0.9183\nsamples = 12\nvalue = [4, 8]"] ;
74 -> 75 ;
76 [label="entropy = 1.0\nsamples = 2\nvalue = [1, 1]"] ;
74 -> 76 ;
77 [label="X[7] <= 0.5\nentropy = 0.8101\nsamples = 345\nvalue = [259, 86]"] ;
51 -> 77 ;
78 [label="X[0] <= 0.5\nentropy = 0.8433\nsamples = 317\nvalue = [231, 86]"] ;
77 -> 78 ;
79 [label="X[4] <= 0.5\nentropy = 0.8877\nsamples = 226\nvalue = [157, 69]"] ;
78 -> 79 ;
80 [label="X[5] <= 0.5\nentropy = 0.9014\nsamples = 208\nvalue = [142, 66]"] ;
79 -> 80 ;
81 [label="entropy = 0.9002\nsamples = 136\nvalue = [93, 43]"] ;
80 -> 81 ;
82 [label="entropy = 0.9038\nsamples = 72\nvalue = [49, 23]"] ;
80 -> 82 ;
83 [label="entropy = 0.65\nsamples = 18\nvalue = [15, 3]"] ;
79 -> 83 ;
84 [label="X[5] <= 0.5\nentropy = 0.6948\nsamples = 91\nvalue = [74, 17]"] ;
78 -> 84 ;
85 [label="X[4] <= 0.5\nentropy = 0.6274\nsamples = 70\nvalue = [59, 11]"] ;
84 -> 85 ;
86 [label="entropy = 0.6374\nsamples = 62\nvalue = [52, 10]"] ;
85 -> 86 ;
87 [label="entropy = 0.5436\nsamples = 8\nvalue = [7, 1]"] ;
85 -> 87 ;
88 [label="entropy = 0.8631\nsamples = 21\nvalue = [15, 6]"] ;
84 -> 88 ;
89 [label="entropy = 0.0\nsamples = 28\nvalue = [28, 0]"] ;
77 -> 89 ;
90 [label="X[0] <= 0.5\nentropy = 0.9892\nsamples = 3789\nvalue = [2126, 1663]"] ;
50 -> 90 ;
91 [label="X[1] <= 0.5\nentropy = 0.9934\nsamples = 3254\nvalue = [1783, 1471]"] ;
90 -> 91 ;
92 [label="X[2] <= 0.5\nentropy = 0.9991\nsamples = 1049\nvalue = [543, 506]"] ;
91 -> 92 ;
93 [label="entropy = 0.9998\nsamples = 419\nvalue = [206, 213]"] ;
92 -> 93 ;
94 [label="entropy = 0.9965\nsamples = 630\nvalue = [337, 293]"] ;
92 -> 94 ;
95 [label="entropy = 0.9888\nsamples = 2205\nvalue = [1240, 965]"] ;
91 -> 95 ;
96 [label="X[1] <= 0.5\nentropy = 0.9417\nsamples = 535\nvalue = [343, 192]"] ;
90 -> 96 ;
97 [label="X[2] <= 0.5\nentropy = 0.9852\nsamples = 154\nvalue = [88, 66]"] ;
96 -> 97 ;
98 [label="entropy = 0.9838\nsamples = 87\nvalue = [50, 37]"] ;
97 -> 98 ;
99 [label="entropy = 0.9869\nsamples = 67\nvalue = [38, 29]"] ;
97 -> 99 ;
100 [label="entropy = 0.9156\nsamples = 381\nvalue = [255, 126]"] ;
96 -> 100 ;
}