digraph Tree {
node [shape=box] ;
0 [label="X[3] <= 0.5\nentropy = 0.8001\nsamples = 8470\nvalue = [6411, 2059]"] ;
1 [label="X[1] <= 0.5\nentropy = 0.3553\nsamples = 4242\nvalue = [3957, 285]"] ;
0 -> 1 [labeldistance=2.5, labelangle=45, headlabel="True"] ;
2 [label="X[8] <= 0.5\nentropy = 0.5404\nsamples = 888\nvalue = [778, 110]"] ;
1 -> 2 ;
3 [label="X[2] <= 0.5\nentropy = 0.4344\nsamples = 179\nvalue = [163, 16]"] ;
2 -> 3 ;
4 [label="X[0] <= 0.5\nentropy = 0.373\nsamples = 153\nvalue = [142, 11]"] ;
3 -> 4 ;
5 [label="X[7] <= 0.5\nentropy = 0.2285\nsamples = 54\nvalue = [52, 2]"] ;
4 -> 5 ;
6 [label="X[6] <= 0.5\nentropy = 0.1371\nsamples = 52\nvalue = [51, 1]"] ;
5 -> 6 ;
7 [label="entropy = 0.0\nsamples = 15\nvalue = [15, 0]"] ;
6 -> 7 ;
8 [label="entropy = 0.1793\nsamples = 37\nvalue = [36, 1]"] ;
6 -> 8 ;
9 [label="entropy = 1.0\nsamples = 2\nvalue = [1, 1]"] ;
5 -> 9 ;
10 [label="X[7] <= 0.5\nentropy = 0.4395\nsamples = 99\nvalue = [90, 9]"] ;
4 -> 10 ;
11 [label="X[5] <= 0.5\nentropy = 0.4457\nsamples = 97\nvalue = [88, 9]"] ;
10 -> 11 ;
12 [label="X[4] <= 0.5\nentropy = 0.4328\nsamples = 90\nvalue = [82, 8]"] ;
11 -> 12 ;
13 [label="entropy = 0.4356\nsamples = 78\nvalue = [71, 7]"] ;
12 -> 13 ;
14 [label="entropy = 0.4138\nsamples = 12\nvalue = [11, 1]"] ;
12 -> 14 ;
15 [label="entropy = 0.5917\nsamples = 7\nvalue = [6, 1]"] ;
11 -> 15 ;
16 [label="entropy = 0.0\nsamples = 2\nvalue = [2, 0]"] ;
10 -> 16 ;
17 [label="X[5] <= 0.5\nentropy = 0.7063\nsamples = 26\nvalue = [21, 5]"] ;
3 -> 17 ;
18 [label="X[0] <= 0.5\nentropy = 0.8315\nsamples = 19\nvalue = [14, 5]"] ;
17 -> 18 ;
19 [label="entropy = 0.971\nsamples = 10\nvalue = [6, 4]"] ;
18 -> 19 ;
20 [label="entropy = 0.5033\nsamples = 9\nvalue = [8, 1]"] ;
18 -> 20 ;
21 [label="entropy = 0.0\nsamples = 7\nvalue = [7, 0]"] ;
17 -> 21 ;
22 [label="X[0] <= 0.5\nentropy = 0.5645\nsamples = 709\nvalue = [615, 94]"] ;
2 -> 22 ;
23 [label="X[2] <= 0.5\nentropy = 0.588\nsamples = 403\nvalue = [346, 57]"] ;
22 -> 23 ;
24 [label="entropy = 0.5765\nsamples = 197\nvalue = [170, 27]"] ;
23 -> 24 ;
25 [label="entropy = 0.5988\nsamples = 206\nvalue = [176, 30]"] ;
23 -> 25 ;
26 [label="X[2] <= 0.5\nentropy = 0.532\nsamples = 306\nvalue = [269, 37]"] ;
22 -> 26 ;
27 [label="entropy = 0.5219\nsamples = 247\nvalue = [218, 29]"] ;
26 -> 27 ;
28 [label="entropy = 0.5726\nsamples = 59\nvalue = [51, 8]"] ;
26 -> 28 ;
29 [label="X[0] <= 0.5\nentropy = 0.2956\nsamples = 3354\nvalue = [3179, 175]"] ;
1 -> 29 ;
30 [label="X[6] <= 0.5\nentropy = 0.3515\nsamples = 1677\nvalue = [1566, 111]"] ;
29 -> 30 ;
31 [label="X[4] <= 0.5\nentropy = 0.3679\nsamples = 1503\nvalue = [1397, 106]"] ;
30 -> 31 ;
32 [label="X[8] <= 0.5\nentropy = 0.3709\nsamples = 1486\nvalue = [1380, 106]"] ;
31 -> 32 ;
33 [label="X[5] <= 0.5\nentropy = 0.4341\nsamples = 56\nvalue = [51, 5]"] ;
32 -> 33 ;
34 [label="entropy = 0.4138\nsamples = 12\nvalue = [11, 1]"] ;
33 -> 34 ;
35 [label="entropy = 0.4395\nsamples = 44\nvalue = [40, 4]"] ;
33 -> 35 ;
36 [label="entropy = 0.3683\nsamples = 1430\nvalue = [1329, 101]"] ;
32 -> 36 ;
37 [label="entropy = 0.0\nsamples = 17\nvalue = [17, 0]"] ;
31 -> 37 ;
38 [label="entropy = 0.188\nsamples = 174\nvalue = [169, 5]"] ;
30 -> 38 ;
39 [label="X[6] <= 0.5\nentropy = 0.2338\nsamples = 1677\nvalue = [1613, 64]"] ;
29 -> 39 ;
40 [label="X[4] <= 0.5\nentropy = 0.2498\nsamples = 1465\nvalue = [1404, 61]"] ;
39 -> 40 ;
41 [label="X[8] <= 0.5\nentropy = 0.2517\nsamples = 1450\nvalue = [1389, 61]"] ;
40 -> 41 ;
42 [label="X[7] <= 0.5\nentropy = 0.3373\nsamples = 64\nvalue = [60, 4]"] ;
41 -> 42 ;
43 [label="entropy = 0.3478\nsamples = 46\nvalue = [43, 3]"] ;
42 -> 43 ;
44 [label="entropy = 0.3095\nsamples = 18\nvalue = [17, 1]"] ;
42 -> 44 ;
45 [label="entropy = 0.2474\nsamples = 1386\nvalue = [1329, 57]"] ;
41 -> 45 ;
46 [label="entropy = 0.0\nsamples = 15\nvalue = [15, 0]"] ;
40 -> 46 ;
47 [label="entropy = 0.1072\nsamples = 212\nvalue = [209, 3]"] ;
39 -> 47 ;
48 [label="X[8] <= 0.5\nentropy = 0.9813\nsamples = 4228\nvalue = [2454, 1774]"] ;
0 -> 48 [labeldistance=2.5, labelangle=-45, headlabel="False"] ;
49 [label="X[1] <= 0.5\nentropy = 0.8708\nsamples = 487\nvalue = [345, 142]"] ;
48 -> 49 ;
50 [label="X[6] <= 0.5\nentropy = 0.9923\nsamples = 136\nvalue = [75, 61]"] ;
49 -> 50 ;
51 [label="X[0] <= 0.5\nentropy = 0.9558\nsamples = 69\nvalue = [43, 26]"] ;
50 -> 51 ;
52 [label="X[4] <= 0.5\nentropy = 0.9784\nsamples = 58\nvalue = [34, 24]"] ;
51 -> 52 ;
53 [label="X[2] <= 0.5\nentropy = 0.9896\nsamples = 50\nvalue = [28, 22]"] ;
52 -> 53 ;
54 [label="X[7] <= 0.5\nentropy = 0.9986\nsamples = 23\nvalue = [12, 11]"] ;
53 -> 54 ;
55 [label="entropy = 1.0\nsamples = 22\nvalue = [11, 11]"] ;
54 -> 55 ;
56 [label="entropy = 0.0\nsamples = 1\nvalue = [1, 0]"] ;
54 -> 56 ;
57 [label="X[5] <= 0.5\nentropy = 0.9751\nsamples = 27\nvalue = [16, 11]"] ;
53 -> 57 ;
58 [label="entropy = 1.0\nsamples = 6\nvalue = [3, 3]"] ;
57 -> 58 ;
59 [label="entropy = 0.9587\nsamples = 21\nvalue = [13, 8]"] ;
57 -> 59 ;
60 [label="X[2] <= 0.5\nentropy = 0.8113\nsamples = 8\nvalue = [6, 2]"] ;
52 -> 60 ;
61 [label="entropy = 0.9183\nsamples = 3\nvalue = [2, 1]"] ;
60 -> 61 ;
62 [label="entropy = 0.7219\nsamples = 5\nvalue = [4, 1]"] ;
60 -> 62 ;
63 [label="X[2] <= 0.5\nentropy = 0.684\nsamples = 11\nvalue = [9, 2]"] ;
51 -> 63 ;
64 [label="X[4] <= 0.5\nentropy = 0.971\nsamples = 5\nvalue = [3, 2]"] ;
63 -> 64 ;
65 [label="entropy = 0.9183\nsamples = 3\nvalue = [2, 1]"] ;
64 -> 65 ;
66 [label="entropy = 1.0\nsamples = 2\nvalue = [1, 1]"] ;
64 -> 66 ;
67 [label="entropy = 0.0\nsamples = 6\nvalue = [6, 0]"] ;
63 -> 67 ;
68 [label="X[2] <= 0.5\nentropy = 0.9986\nsamples = 67\nvalue = [32, 35]"] ;
50 -> 68 ;
69 [label="X[0] <= 0.5\nentropy = 1.0\nsamples = 52\nvalue = [26, 26]"] ;
68 -> 69 ;
70 [label="entropy = 0.9996\nsamples = 41\nvalue = [21, 20]"] ;
69 -> 70 ;
71 [label="entropy = 0.994\nsamples = 11\nvalue = [5, 6]"] ;
69 -> 71 ;
72 [label="X[0] <= 0.5\nentropy = 0.971\nsamples = 15\nvalue = [6, 9]"] ;
68 -> 72 ;
73 [label="entropy = 0.9612\nsamples = 13\nvalue = [5, 8]"] ;
72 -> 73 ;
74 [label="entropy = 1.0\nsamples = 2\nvalue = [1, 1]"] ;
72 -> 74 ;
75 [label="X[7] <= 0.5\nentropy = 0.7793\nsamples = 351\nvalue = [270, 81]"] ;
49 -> 75 ;
76 [label="X[0] <= 0.5\nentropy = 0.8162\nsamples = 320\nvalue = [239, 81]"] ;
75 -> 76 ;
77 [label="X[4] <= 0.5\nentropy = 0.8813\nsamples = 220\nvalue = [154, 66]"] ;
76 -> 77 ;
78 [label="X[6] <= 0.5\nentropy = 0.8989\nsamples = 200\nvalue = [137, 63]"] ;
77 -> 78 ;
79 [label="entropy = 0.9275\nsamples = 70\nvalue = [46, 24]"] ;
78 -> 79 ;
80 [label="entropy = 0.8813\nsamples = 130\nvalue = [91, 39]"] ;
78 -> 80 ;
81 [label="entropy = 0.6098\nsamples = 20\nvalue = [17, 3]"] ;
77 -> 81 ;
82 [label="X[5] <= 0.5\nentropy = 0.6098\nsamples = 100\nvalue = [85, 15]"] ;
76 -> 82 ;
83 [label="X[4] <= 0.5\nentropy = 0.5869\nsamples = 78\nvalue = [67, 11]"] ;
82 -> 83 ;
84 [label="entropy = 0.5917\nsamples = 70\nvalue = [60, 10]"] ;
83 -> 84 ;
85 [label="entropy = 0.5436\nsamples = 8\nvalue = [7, 1]"] ;
83 -> 85 ;
86 [label="entropy = 0.684\nsamples = 22\nvalue = [18, 4]"] ;
82 -> 86 ;
87 [label="entropy = 0.0\nsamples = 31\nvalue = [31, 0]"] ;
75 -> 87 ;
88 [label="X[0] <= 0.5\nentropy = 0.9882\nsamples = 3741\nvalue = [2109, 1632]"] ;
48 -> 88 ;
89 [label="X[1] <= 0.5\nentropy = 0.9929\nsamples = 3208\nvalue = [1763, 1445]"] ;
88 -> 89 ;
90 [label="X[2] <= 0.5\nentropy = 0.9974\nsamples = 1040\nvalue = [551, 489]"] ;
89 -> 90 ;
91 [label="entropy = 0.9994\nsamples = 418\nvalue = [203, 215]"] ;
90 -> 91 ;
92 [label="entropy = 0.9898\nsamples = 622\nvalue = [348, 274]"] ;
90 -> 92 ;
93 [label="entropy = 0.9899\nsamples = 2168\nvalue = [1212, 956]"] ;
89 -> 93 ;
94 [label="X[1] <= 0.5\nentropy = 0.9348\nsamples = 533\nvalue = [346, 187]"] ;
88 -> 94 ;
95 [label="X[2] <= 0.5\nentropy = 0.9755\nsamples = 147\nvalue = [87, 60]"] ;
94 -> 95 ;
96 [label="entropy = 0.9666\nsamples = 84\nvalue = [51, 33]"] ;
95 -> 96 ;
97 [label="entropy = 0.9852\nsamples = 63\nvalue = [36, 27]"] ;
95 -> 97 ;
98 [label="entropy = 0.9139\nsamples = 386\nvalue = [259, 127]"] ;
94 -> 98 ;
}